{"sizes": [5, 40, 1], "weights": [[[0.5328280083486767, -0.4297298387309687, 0.1105389347398395, -0.6778424691634755, -0.10225559309650986], [0.6131506886354683, 0.24923449091854044, 0.031225286369452623, 0.7396495673901169, 0.060015182571784405], [-0.5598940408243134, -0.016634124401678878, -0.27118619194455085, -0.3323012130951066, 0.14678573083839636], [0.047364448518444416, -0.1752545529307765, 0.4607429468826834, -1.0106897586110744, 0.07086604807210324], [-0.011678937798258985, 0.02675027215978068, 0.03240275471533541, 0.023626658006036833, -0.005099844843076084], [0.005281879667352966, -0.006906149556643326, -0.02301643105494056, -0.021531801642063652, 0.001076587115063725], [-0.8564532203052421, 0.2904918597015194, 0.33004105822967406, 0.29359782527322026, 0.3340320894915043], [0.3133034719561546, -0.4251072377579244, -0.15825838022951064, 0.012740983057349711, -0.056650543657056796], [0.1579882942946014, -1.1113052518743007, 0.5606867170731613, -0.2973892148577928, -0.14394192680636997], [0.21873852156356213, 0.35882180646460343, 0.5182848423569282, -0.9959281499101429, -0.02952729493068021], [-0.6631217756809323, 0.5250793226065393, 0.6897838783201329, -0.15552966140135088, -0.15444216300079708], [0.034299785746266964, 0.018375570098861416, 0.043226930504859165, 0.010805752229863326, 0.0002246969629832992], [-0.7983025777543916, -0.24649836232582115, 0.3605707565013199, 0.6104755074498613, 0.09130421607753161], [1.7082054359221894, -0.38857777887542766, -0.7184227646508257, -0.18906632135174925, 0.1298604920244835], [-1.49454458370642, -0.06556687060480512, -0.3301150733580329, 0.4181794211036224, 0.1433832668878766], [1.082089930628731, 0.6395953806736359, -1.006677785105343, 0.39840992064969255, 0.16331544905728063], [0.6624582621991483, 0.5880740848284308, -0.4509515737352687, -0.547207385354377, 0.2750856167681168], [0.006141749856728778, -0.007458311791383404, -0.005791653699011558, -0.034654183044991266, 0.0010494718560435632], [-1.0059306282385667, -0.9308963157043019, 0.7756347504498591, 0.2619564121108284, 0.020325713176686737], [0.9462232825824348, 1.0085496879074134, -0.03317517994044344, -0.46369583970563316, 0.06154215595183642], [0.006904634338559357, -0.005181180549803541, -0.01933215195083508, -0.0179596064706502, 0.00016643870791633705], [-0.004151086701607043, 0.007728061101378033, 0.02861907624022655, 0.019167168869687907, -0.0009284319411074955], [-0.7380336904741385, 0.42314930419711033, 0.23728355714014526, 0.35286989493638277, 0.1375410309685542], [0.7294314840715834, -0.45113124995799947, -0.5002474935858084, 0.031047253738203905, 0.13542344398732595], [0.00708416470980615, -0.010206099055009455, -0.0209938388443614, -0.019222161022948814, 0.0003649166233151959], [-0.006371496033345208, 0.00233456908553175, 0.01960822289792304, 0.02756977548960327, -0.0012494262017865834], [-0.011813431121311092, 0.006799798194052373, 0.033415294574443075, 0.02461189347537335, -0.0005277043693512712], [0.9135858260181161, 0.1562415610511674, 0.07227864645659891, -0.3937472223790045, -0.0024958498499486523], [-0.022629109076048603, 0.016377829030940306, 0.04226038023593046, 0.02386443452191297, -0.0012590678252841587], [0.005573022262318053, -0.008113159280189616, -0.02256679095260861, -0.02166867409564386, 0.00043146765585790834], [0.0061756194674184, -0.0072665215419549165, -0.01971505689054614, -0.020916340229463593, 0.0008037161068345748], [-0.011679910641583063, 0.006825767588216952, 0.03262636650848892, 0.021992068325770067, -0.0005777632142436726], [-0.0039812319200452995, 0.007165105482436478, 0.026073195774375838, 0.018764083834688583, -0.0009620799506672551], [-0.6067341067001522, 0.4716377128507349, -0.042497165485062924, -0.2853903035340211, -0.015983470104236546], [-0.4681830952045566, 0.07362540738916233, 0.056906533395344995, 0.6415926030551524, 0.2499294805564494], [-0.7142281891968398, 0.6741733142806816, 0.004378257021969322, 0.23268901588694485, 0.16647608420297527], [0.04654617302932361, 0.45930899727128316, 0.6013850302262134, -1.273948520861206, 0.07234951200004693], [0.007772642684584022, -0.0084759063319035, -0.027616581883980598, -0.020503972045615177, 0.0007582180544106879], [-0.0034930988901709873, 0.007899467410713863, 0.027815164594841343, 0.01765885321034694, -0.0008654370240838933], [1.2089938126492406, -0.6122491165665137, -0.4867100358590776, 0.22632631088518762, 0.045208120786380986]], [[-0.6813165734517264, -0.8229363887224888, -0.5541539244932754, -0.28486746302607535, 0.05802537209953696, -0.009965014613605216, -0.9173880457559848, -0.1517033651023368, -0.20219001055466312, -0.32855580821721186, 0.5431241034953006, 0.02697497710903151, 0.6800815749616402, 0.9190800315976274, -0.30701457552127914, -0.20273518044351785, 0.5900912265560035, -0.020403056684141187, -0.2466440859308146, -0.33554468754600464, -0.019658923729881844, 0.052525459919983405, -0.6944269947667278, -0.5585963833593172, -0.02036026741205828, 0.05137916143041696, 0.01621676995411023, 0.1542388277565811, 0.08077120839060341, -0.01851565909163347, -0.016077656646144887, 0.0888472862927178, 0.05435940662868121, 0.17567549721075534, 0.6546078669782122, 0.35487298296991104, 0.3366885474557833, -0.02187715832627646, 0.05606976609822846, -0.31754590480425676]]], "biases": [[[1.043999837330381], [-0.14437794078279592], [0.2259275127586129], [-0.3527341109447183], [-1.1453053073842276], [1.3259458403746822], [-1.2731423684527465], [0.4808090468894647], [-0.2028165137027497], [-0.11258440241990159], [-0.2735357662123941], [0.19343263115231135], [-1.9288986487465178], [-1.4901239655605738], [-0.12952577724796654], [-0.10794286150029138], [0.09911322573849188], [0.35771716128688236], [0.9135939786347095], [0.1612609060630877], [-1.7308227143392192], [-0.0637753375145022], [-1.9373338368948878], [0.36205822978008895], [-0.721772578281011], [-0.11783143018998356], [-1.1265547350518401], [0.3175998727795076], [0.061240162288036484], [0.6596301583099596], [-0.36732910192515794], [0.5430150396136529], [0.6880623714613335], [-1.972309204529831], [-2.195594700780146], [-1.452344098770982], [-0.5963413045829424], [0.7746615143026336], [0.48756384705163547], [0.08930381189884674]], [[-1.0339385955656666]]]}