{"sizes": [5, 40, 1], "weights": [[[0.6999653317341349, -0.4515915918344047, 0.1008321402728706, -0.8897072778747903, -0.15841152941215547], [0.6067518252699974, 0.560557337249505, -0.042091088979347255, 0.7402074831032016, 0.014723498873873725], [-0.9500380097933515, 0.9141086335246222, -0.9497194137633779, -0.2143344343483678, -0.2717395862931695], [0.09026065895554866, -0.3697979703342264, 0.5904556264554078, -1.5027766052842266, 0.06039347900773105], [-0.5559199723000238, 0.314773731235842, -0.44502434687311077, 1.0604822857970155, 1.3621068074952851], [-0.20109127982557493, -0.658126215698098, 0.4770190790311057, -1.5446225818183419, -0.1933365419590777], [-0.46323953310882476, 0.3129965989857413, 0.1667400567626159, 0.18424419791985486, 0.12418247903659875], [0.764005397586213, -0.41077616409109496, -0.5147279657365886, 0.021427340450882428, 0.1589543906052463], [0.2837065244553138, -1.4558533518972547, 0.8268983267770196, -0.523201098533916, -0.24256366891027328], [0.0768877515875965, 0.8891083172646737, 0.5040721805622177, -1.2630669639932608, 0.08725113789688844], [-0.3674254407369513, 0.20161426519558834, 0.6638884894528276, -0.3755319371219195, -0.09047841776385021], [0.7144941219685434, 0.057614406325513665, 0.2954008148032558, 0.4758201386001203, -0.8119560523928504], [-1.3022629841352624, -0.43902767045573027, 0.6008030434019044, 0.9806993050415205, -0.07479270027380461], [0.9159300407823375, -0.3081371613374899, -0.5160306098823315, 0.06477349722234373, -0.14825684763149388], [-0.9976493124226504, 0.02595845684044205, -0.4365627757931237, 0.6211665892383816, -0.0223997584442938], [1.0985719503801963, 0.6584066320112474, -0.2995733492627595, 0.0785370564758622, 0.5188250013544377], [0.6132033594153731, 0.3609665249653967, 0.0955760809874132, -0.6571135248337727, -0.10567403038029191], [-0.040814119587194206, -1.1665025530858182, 0.49818052624556025, -0.7555989579685195, 0.28791893413929825], [-1.4520872345666307, 0.025638034433947965, 0.7015282237470366, 0.36233033305974016, -0.5011071228479138], [0.7936262910848375, 1.0442799344190838, -0.1087002340584529, -0.45345581357290865, 0.01836907105652499], [-0.47508894259443685, 0.638191179086872, 0.07527539912386466, -1.2461367643256545, 0.7577367655747956], [-1.0640461560659626, -1.1987370596321023, 0.9127384268023488, 0.07364218772085353, -0.8997438483087145], [-0.41983977803572153, -0.024319835572972525, 0.12512838025565548, 0.5935892188163807, -0.0564872356075482], [1.0354713068191541, -0.3353852449413768, -0.6511498139814074, -0.08174521746326723, -0.004155880922107762], [-0.5197992706947178, 0.7243907044136538, 0.2488088442133124, -0.3193292762430002, 0.4288147065800054], [-0.14755548351271902, 0.13878306594369128, -0.15842291686329332, 1.0783610017923808, 0.28007922704691063], [-0.8283100468873248, 0.9614438167089749, -0.22521230425137453, 0.4833036288912924, -0.5154164175463618], [0.9630327540125423, 0.6177119993869246, 0.09408588752026632, -0.9127146673233305, 0.2559246156372831], [-0.4392400466014309, 0.3432397026729502, -0.07254362364762047, -1.0129419118361105, -0.5796062722803942], [0.8820540883481557, 1.6242557181021406, -0.5122559936111724, -1.1063730682002235, 0.018337287540176425], [-0.3859059871540254, 1.0080193625462428, -0.3151265450687357, -1.116182186603182, 0.05979391959872858], [-0.5685554617691952, 1.0046241657553514, -0.04183717278281409, 0.010461849119574467, -0.04143474486871353], [0.4594677466965356, -0.7205625171577845, -0.07899357070234282, -0.009275581529479552, -0.01270835890449145], [-0.6965865219711441, 1.151928941775394, -0.5929512253618578, -0.10837529526529563, -0.287556219256747], [-0.5519993952173201, 0.016574840463160545, -0.08529472515016308, 1.0674053902284346, 0.13057353010114633], [-1.1115768882780817, 1.2115629117309263, -0.04055427212448023, 0.02900456357178849, -0.23670218716481958], [0.43628008655656914, 0.280978920598562, 1.1258664851781703, -1.6202417784238732, -0.49800191352344697], [0.82682864886489, 0.7539010968064707, -0.5127951615956421, -1.274677303198131, 0.48880501868802223], [1.3967748995468634, -1.3412720556131925, 0.35949054468784114, -0.5702447069061852, 0.9669443904794515], [1.1174969309782292, -1.346408253049182, 0.17518519759793869, -0.3454962994222609, 0.18875027137012584]], [[-1.290047236624909, -0.628428141488726, 0.44321203853122754, 0.6556183931095059, 0.582238919812734, 0.8205888653543977, -0.561738931328669, -0.46754615628746315, -0.46120286229171215, -0.4427593392931419, 0.20129728236364294, 0.4469906791087158, 1.0273193173759327, 0.41875077133564975, -0.2915326800729716, -0.16449667439375104, 0.3751677649687049, -0.7849702862832406, -1.2495188695054473, -0.21849368840778519, -0.47980064309762166, 0.4234367953447799, -0.4661644963854113, -0.8677643602019133, -0.1345956005740612, 0.5556029565123238, -0.8341271468028745, -0.514802855217716, 0.5506302784672283, 0.8343553000547337, -0.7294202125333665, -0.5213134895393864, 0.36947534046354363, 0.11323082983466712, 0.6300054215724566, 0.8920683620035411, 0.5163191177153148, 0.9288236671277004, 1.062039781679065, -0.9859441150790161]]], "biases": [[[1.0668891765456132], [-0.17312921711897816], [0.16026568964836654], [-0.32583841131593644], [-1.1946272103623692], [1.3759596421755143], [-1.2825564928073825], [0.47889862135528144], [-0.13110141162174455], [-0.10644989692937275], [-0.254101004366183], [0.204492577418921], [-1.8834227247572888], [-1.505632528586301], [-0.14587713040783368], [-0.1493040012075958], [0.0813731368649863], [0.42210177419188744], [0.9365926468277669], [0.11347913861822231], [-1.7469462114589613], [-0.018875786556218282], [-1.9257583312466786], [0.35728753356678067], [-0.723447521306864], [-0.13230777531302482], [-1.1856245113855588], [0.3092759562756743], [0.051277657040277404], [0.6032448761983603], [-0.4175814412888973], [0.5173250197115488], [0.707104404230084], [-2.0290661555095353], [-2.203328654573379], [-1.4955224713761746], [-0.5642610465468842], [0.7438905349881691], [0.5277546811993773], [0.15242267329975007]], [[-1.3773005541196073]]]}